gru/gru_cell/kernel:0
(1, 240)
[[ 1.98207557e-01 -2.40630731e-01 -1.08284749e-01 -2.46684849e-01
  -1.13746665e-01 -5.46386652e-02 -3.94440666e-02 -1.49331372e-02
  -1.16737649e-01 -2.24094808e-01 -1.88052654e-01  1.63854770e-02
  -2.25951776e-01 -4.08406973e-01 -3.63789983e-02 -9.13517624e-02
  -1.85962707e-01 -1.82855234e-01 -1.43644094e-01 -1.93440124e-01
  -2.59520225e-02 -2.37677574e-01 -7.90951550e-02 -1.96728706e-01
  -1.16785698e-01 -3.35034460e-01 -3.33846733e-02 -1.25318989e-01
  -2.82703906e-01 -1.15947880e-01 -9.90696484e-04 -1.91389024e-01
  -2.33617753e-01 -2.42560297e-01 -3.11699748e-01 -2.15887845e-01
  -1.95671797e-01 -1.03447914e-01 -1.52757674e-01 -1.84931397e-01
   1.01471402e-01 -2.89203674e-01 -2.91541815e-01  1.07619390e-01
  -1.64366692e-01 -1.82095483e-01 -2.80232728e-01 -9.28880125e-02
  -8.58709738e-02 -1.75578013e-01 -2.74337143e-01  5.56342825e-02
  -3.55800718e-01 -2.08704233e-01 -5.00543751e-02 -1.14747249e-01
  -1.49366572e-01  8.95595178e-03 -1.61363393e-01 -2.06531644e-01
  -3.02394807e-01 -9.15214196e-02  7.61566907e-02 -3.11889499e-01
  -1.79421127e-01  5.39227687e-02 -1.84575707e-01 -6.84821308e-02
  -2.21306339e-01 -2.04496339e-01 -1.48329675e-01  1.60333484e-01
  -1.16390124e-01 -2.49775514e-01  7.06605017e-02 -1.07723065e-01
  -3.72613817e-01 -2.69061327e-01 -3.41792047e-01 -2.17074215e-01
   1.14112219e-03 -1.83013678e-02  8.96188170e-02 -4.41471636e-02
  -4.41597477e-02 -4.80074845e-02  8.64039510e-02  4.00263779e-02
   8.56156945e-02  1.42761230e-01 -2.71322783e-02  1.29464000e-01
   1.19831143e-02  3.29603255e-02  5.63219897e-02  1.24736540e-01
  -1.78352565e-01  1.19341828e-01 -1.59048960e-01 -1.43476263e-01
  -6.23887442e-02  2.76568774e-02  3.60110067e-02  1.20852605e-01
  -3.39403600e-02 -6.35281578e-02 -1.44277498e-01 -6.89893290e-02
  -1.98237095e-02 -2.16847416e-02  8.18271637e-02  7.23097380e-03
   1.17774181e-01 -1.08840518e-01 -4.50957268e-02  7.83162564e-02
   1.47026271e-01 -3.89601551e-02  5.67116439e-02 -2.80015897e-02
   2.53665075e-03 -1.44943884e-02  1.72220115e-02 -1.27725899e-01
  -3.75915058e-02 -5.74839243e-04  7.26665109e-02  1.15327731e-01
  -1.14361905e-01  3.05102877e-02  8.71077180e-03  1.23987257e-01
  -1.33940086e-01 -1.67487860e-01  1.72903761e-02  1.35779291e-01
   2.61507910e-02 -7.53700659e-02  6.83698282e-02  6.75226152e-02
  -1.59510821e-01 -1.69743136e-01  1.28742002e-04 -9.83399805e-03
  -7.69684687e-02 -3.12002446e-03  1.18683614e-01 -1.21939428e-01
  -2.77108587e-02 -9.64018926e-02  4.11196612e-02  9.75867361e-02
  -2.12898608e-02  5.22342585e-02 -1.15593791e-01 -6.35881862e-03
   4.96456353e-03  4.97813746e-02 -5.26901297e-02 -1.57329664e-01
  -1.18746608e-01 -7.09525645e-02  1.05990790e-01 -2.56856158e-02
  -1.55453607e-01  1.35168567e-01  1.77066270e-02 -6.43639639e-02
   5.95135763e-02  1.46261290e-01 -8.47642496e-02 -5.01219444e-02
  -1.49566280e-02  8.28573927e-02  7.35491812e-02  9.38456729e-02
   1.39760524e-01 -4.75844964e-02  1.02823593e-01  1.78039700e-01
   8.28955621e-02  5.16678505e-02  1.42800778e-01 -1.42600194e-01
   1.38207495e-01 -9.35758129e-02 -1.27791271e-01 -5.49660400e-02
   1.52614012e-01 -1.05158068e-01 -7.05356002e-02 -4.22495715e-02
   5.53770140e-02 -1.31924404e-02  1.53483331e-01 -4.96366508e-02
  -8.33722800e-02  1.04990214e-01  7.57942572e-02  7.46347308e-02
   6.77010883e-03  9.38678980e-02  8.55683237e-02  1.27326861e-01
  -9.10992399e-02  1.05939442e-02  7.53860250e-02  1.51480943e-01
  -3.13366503e-02  8.90550390e-02 -1.04635850e-01 -3.64669319e-03
  -6.37655184e-02  1.21004865e-01 -9.99433175e-02  5.21227485e-04
   4.84338123e-03 -1.02852643e-01 -1.21876948e-01  1.12141892e-01
   1.46700352e-01 -1.34671837e-01 -1.40371889e-01  3.39545533e-02
   6.56589642e-02 -1.29810989e-01  5.68245538e-02  1.38536558e-01
  -1.55122146e-01 -4.58988212e-02 -3.54469009e-02 -4.50628959e-02
   5.34676574e-02 -1.62810221e-01 -1.16010718e-01 -8.30217823e-03
  -8.97742063e-02  9.85013172e-02 -1.37563482e-01  8.88976641e-03]]
gru/gru_cell/recurrent_kernel:0
(80, 240)
[[-0.21675727  0.08505979  0.1623581  ...  0.04406571 -0.14725378
  -0.08865787]
 [-0.11616298  0.02017209  0.06800777 ...  0.03210437  0.05965919
  -0.04398361]
 [ 0.05535533 -0.12532808 -0.22951838 ... -0.03605556 -0.09431712
  -0.05884873]
 ...
 [ 0.09252962 -0.10519172 -0.08822235 ...  0.01187255 -0.0179094
  -0.10695633]
 [-0.10058957  0.05788013  0.15500575 ...  0.04156351 -0.05498314
   0.01570426]
 [-0.04513754  0.24002592  0.27430746 ... -0.08228308  0.09625435
  -0.02381711]]
gru/gru_cell/bias:0
(2, 240)
[[ 9.92940217e-02 -2.08455727e-01 -2.67077386e-01 -1.38685495e-01
  -2.42796123e-01 -2.13506833e-01 -1.10251181e-01 -1.35321707e-01
  -1.42832294e-01 -2.01929212e-01 -1.40532508e-01 -2.09970903e-02
  -7.54041318e-03 -3.07183415e-01 -1.62004814e-01 -2.45404124e-01
  -1.46820113e-01 -1.63090065e-01 -2.67359287e-01 -3.29406530e-01
  -1.39184311e-01 -2.04024181e-01 -1.78552046e-01 -1.95028573e-01
  -1.70090213e-01 -3.00022840e-01 -1.64325699e-01 -1.99735552e-01
  -1.91524342e-01 -1.03757553e-01 -9.05671045e-02 -2.28351504e-01
  -1.69183657e-01 -3.98181863e-02 -2.20042095e-01 -1.35602936e-01
  -2.20912650e-01 -1.34659678e-01 -1.47584960e-01 -1.91667303e-01
  -7.99794644e-02 -2.46496633e-01 -2.10848913e-01  5.68494461e-02
  -2.12384239e-01  1.39435930e-02 -2.87843853e-01 -1.60251483e-01
  -2.07151622e-02 -1.94032013e-01 -2.38558233e-01 -1.18848085e-02
  -2.84994990e-01 -1.31342441e-01 -2.16877982e-01  2.09197216e-02
   6.35029450e-02 -1.09588005e-01 -1.56277776e-01 -2.40138680e-01
  -1.69129878e-01 -1.58216849e-01 -3.48031819e-02 -2.88840085e-01
  -2.91318685e-01 -1.10669389e-01 -2.22640917e-01 -1.78072229e-01
  -1.87859952e-01 -8.44054967e-02 -2.80916303e-01  5.77170700e-02
  -2.66620278e-01 -2.44475678e-01 -5.24591357e-02 -2.57072710e-02
  -2.58450210e-01 -2.25328550e-01 -2.15565234e-01 -1.48133829e-01
  -8.13884102e-03 -1.09599344e-02  1.46534480e-02 -1.07124504e-02
   5.85999107e-03  8.01094249e-03 -8.42121616e-03 -4.20554355e-03
  -2.58037285e-03 -6.46118168e-03 -3.85096576e-03  3.41530479e-02
  -3.14551545e-03  3.30908992e-03 -2.94193672e-03  6.32875413e-03
   2.10749707e-03 -4.21730056e-03  3.44604068e-02  2.70240586e-02
  -2.60625803e-03  1.99327618e-02 -8.09462741e-03  1.32611291e-02
  -6.24749344e-03  9.60369315e-03 -2.22614734e-03  2.12411676e-02
  -2.47740536e-03 -2.68615829e-03 -1.33647106e-03 -1.06989779e-02
  -3.08951084e-03 -3.55478167e-03  9.95960366e-03 -5.08164754e-03
   6.53969590e-04 -2.63771228e-03 -2.87439604e-03 -4.60370583e-03
  -8.89677741e-03  3.64359142e-03 -1.33585399e-02 -1.12730609e-02
   4.42385534e-03 -1.46486168e-03  2.60672830e-02 -4.04218677e-03
   7.25137070e-05 -2.24793330e-03  3.36926617e-03 -1.43931862e-02
   1.19959144e-02 -1.26486495e-02 -1.36270970e-02 -8.11715424e-03
  -2.56822491e-03 -3.05170403e-03 -5.14085917e-03  2.24620346e-02
  -5.36839804e-03  4.50036227e-04 -1.66123603e-02  3.00858612e-03
   2.17973907e-02 -1.12874033e-02 -1.87176905e-04 -8.36938992e-03
   1.26564002e-03 -7.61236716e-03  4.09583468e-03  1.41455112e-02
   5.53631084e-03  1.39986612e-02  4.86681424e-03 -1.25115812e-02
  -5.17591543e-04 -4.50559845e-03  7.31771905e-03 -5.47959749e-03
   1.11036375e-02  1.42131420e-02 -9.31546092e-03  1.17663685e-02
  -9.58658662e-03 -7.56612839e-03 -1.52097987e-02 -2.85050157e-03
   8.68155714e-03 -9.03010741e-03  3.00416583e-03  1.44114019e-02
  -3.34963109e-03 -5.26387477e-03 -1.41381274e-03 -3.01605347e-03
  -1.18867224e-02 -6.95297634e-03 -1.79860219e-02 -1.33024259e-02
   2.18986464e-03 -6.07940415e-03 -8.65185540e-03  1.91222411e-02
  -3.99160478e-03  1.03609292e-02 -4.54882160e-03  1.40662016e-02
  -7.91514572e-03  4.93077654e-03 -3.84871033e-03 -1.37706110e-02
  -2.69983825e-03  1.48107251e-03 -5.59886638e-03 -4.45277168e-04
  -1.22472690e-02 -6.83358591e-03  4.20778902e-04 -7.63344695e-04
  -8.58076848e-03 -4.21476923e-03 -6.65047020e-03 -1.17806410e-02
   3.59508605e-03  5.93816349e-03 -1.19146397e-02 -5.58113120e-03
  -2.39225407e-03  1.50591810e-03  5.25349472e-03  1.24204913e-02
   1.11664254e-02 -3.53530818e-03 -3.48223816e-03  1.28494501e-02
  -9.21403407e-04 -1.70486514e-04  2.63108639e-03 -1.56191839e-02
  -1.33118071e-02  5.72003564e-03  5.93938399e-03 -1.14632770e-03
   3.39458627e-03  1.33967418e-02  5.91975730e-03 -7.05020223e-03
   8.35544430e-03  8.58732406e-03  6.44939207e-03  1.38844876e-02
  -7.83414952e-03  5.29678259e-03  7.91008212e-03  1.60297304e-02
   1.15316804e-03 -6.27946528e-03  6.18654024e-03 -1.96640305e-02]
 [ 9.92940366e-02 -2.08455741e-01 -2.67077386e-01 -1.38685495e-01
  -2.42796138e-01 -2.13506848e-01 -1.10251166e-01 -1.35321692e-01
  -1.42832294e-01 -2.01929197e-01 -1.40532508e-01 -2.09970903e-02
  -7.54041784e-03 -3.07183415e-01 -1.62004828e-01 -2.45404124e-01
  -1.46820128e-01 -1.63090080e-01 -2.67359287e-01 -3.29406530e-01
  -1.39184311e-01 -2.04024136e-01 -1.78552046e-01 -1.95028573e-01
  -1.70090228e-01 -3.00022840e-01 -1.64325684e-01 -1.99735567e-01
  -1.91524327e-01 -1.03757553e-01 -9.05671045e-02 -2.28351504e-01
  -1.69183671e-01 -3.98181826e-02 -2.20042095e-01 -1.35602936e-01
  -2.20912620e-01 -1.34659693e-01 -1.47584945e-01 -1.91667318e-01
  -7.99794570e-02 -2.46496633e-01 -2.10848927e-01  5.68494461e-02
  -2.12384239e-01  1.39435865e-02 -2.87843853e-01 -1.60251483e-01
  -2.07151584e-02 -1.94031999e-01 -2.38558218e-01 -1.18848067e-02
  -2.84994990e-01 -1.31342441e-01 -2.16877997e-01  2.09197234e-02
   6.35029450e-02 -1.09587997e-01 -1.56277791e-01 -2.40138680e-01
  -1.69129878e-01 -1.58216864e-01 -3.48031856e-02 -2.88840085e-01
  -2.91318685e-01 -1.10669404e-01 -2.22640902e-01 -1.78072244e-01
  -1.87859952e-01 -8.44054967e-02 -2.80916303e-01  5.77170849e-02
  -2.66620278e-01 -2.44475678e-01 -5.24591357e-02 -2.57072691e-02
  -2.58450180e-01 -2.25328550e-01 -2.15565234e-01 -1.48133814e-01
  -8.13884102e-03 -1.09599316e-02  1.46534517e-02 -1.07124522e-02
   5.85999526e-03  8.01094063e-03 -8.42121616e-03 -4.20554308e-03
  -2.58037355e-03 -6.46118075e-03 -3.85096576e-03  3.41530517e-02
  -3.14551499e-03  3.30909039e-03 -2.94193719e-03  6.32875226e-03
   2.10749661e-03 -4.21730103e-03  3.44604030e-02  2.70240568e-02
  -2.60625803e-03  1.99327618e-02 -8.09462741e-03  1.32611291e-02
  -6.24749204e-03  9.60369222e-03 -2.22614780e-03  2.12411694e-02
  -2.47740629e-03 -2.68615712e-03 -1.33647153e-03 -1.06989797e-02
  -3.08951130e-03 -3.55478073e-03  9.95960180e-03 -5.08164661e-03
   6.53968775e-04 -2.63771228e-03 -2.87439604e-03 -4.60370490e-03
  -8.89677648e-03  3.64359375e-03 -1.33585418e-02 -1.12730609e-02
   4.42385487e-03 -1.46486098e-03  2.60672830e-02 -4.04218584e-03
   7.25135760e-05 -2.24793353e-03  3.36926663e-03 -1.43931862e-02
   1.19959144e-02 -1.26486495e-02 -1.36270970e-02 -8.11715424e-03
  -2.56822584e-03 -3.05170356e-03 -5.14085870e-03  2.24620365e-02
  -5.36839990e-03  4.50034160e-04 -1.66123621e-02  3.00858566e-03
   2.17973907e-02 -1.12874033e-02 -1.87176673e-04 -8.36939178e-03
   1.26563932e-03 -7.61236623e-03  4.09583561e-03  1.41455103e-02
   5.53631084e-03  1.39986575e-02  4.86681238e-03 -1.25115793e-02
  -5.17590903e-04 -4.50559985e-03  7.31772184e-03 -5.47959935e-03
   1.11203119e-02  1.39797218e-02 -8.37381650e-03  1.17309010e-02
  -9.42072738e-03 -7.40784220e-03 -1.48502588e-02 -2.82395375e-03
   8.67187232e-03 -8.74376483e-03  3.01687163e-03  1.44143272e-02
  -3.18665337e-03 -4.58437344e-03 -1.17714750e-03 -2.38413853e-03
  -1.18525838e-02 -7.09123071e-03 -1.85419507e-02 -1.44271823e-02
   1.92209031e-03 -5.92899462e-03 -8.48676637e-03  1.83845907e-02
  -3.77392746e-03  1.03545394e-02 -3.81311565e-03  1.40465973e-02
  -7.89729320e-03  4.93559288e-03 -3.77105013e-03 -1.37120904e-02
  -2.40174332e-03  1.62035984e-03 -5.58574544e-03 -6.39258127e-04
  -1.26770344e-02 -6.92266831e-03  4.84304590e-04 -1.06255745e-03
  -8.55750963e-03 -3.87883838e-03 -6.47916365e-03 -1.16629461e-02
   3.56224738e-03  5.82717173e-03 -1.14378054e-02 -5.27809933e-03
  -2.01839139e-03  1.53929740e-03  5.11871558e-03  1.26826726e-02
   1.15421899e-02 -3.49444058e-03 -3.99676291e-03  1.24945045e-02
  -7.28560030e-04  6.93038874e-06  2.40578596e-03 -1.51898032e-02
  -1.34519804e-02  5.62785333e-03  5.94394561e-03 -8.70770658e-04
   3.39393783e-03  1.34310294e-02  6.43098075e-03 -7.37052597e-03
   8.40684492e-03  8.76102131e-03  5.99151012e-03  1.39315929e-02
  -7.83649459e-03  4.83324891e-03  7.88220670e-03  1.60197522e-02
   7.00451783e-04 -5.82751678e-03  5.72545687e-03 -2.02015378e-02]]
gru_1/gru_cell_1/kernel:0
(80, 300)
[[-0.10300983 -0.0745514   0.0295661  ...  0.10032371 -0.03231443
   0.06086002]
 [ 0.07958933 -0.01865064  0.07891824 ... -0.04757506  0.00673435
  -0.11732335]
 [ 0.00976623  0.14594918 -0.02661234 ... -0.03880443  0.03986034
  -0.0386627 ]
 ...
 [ 0.14520971 -0.02196033 -0.16304542 ... -0.07451411  0.09477516
   0.07584501]
 [-0.05850603 -0.02893904  0.07051314 ...  0.02208517  0.08425215
   0.00503343]
 [ 0.05996474 -0.17578398  0.00301638 ...  0.05654911  0.10467634
   0.10915197]]
gru_1/gru_cell_1/recurrent_kernel:0
(100, 300)
[[-0.09899065 -0.02951996  0.10111469 ... -0.06705268 -0.07121381
   0.02179768]
 [-0.04373207  0.02584171 -0.00746585 ... -0.01480839  0.0035319
   0.02123341]
 [-0.01253813 -0.0801461   0.07193149 ... -0.006931   -0.08585405
  -0.01113679]
 ...
 [-0.16968353  0.07244145 -0.00765389 ...  0.00313973 -0.02521522
   0.02067142]
 [ 0.00459168  0.0127071   0.06106693 ... -0.05800319 -0.01044501
   0.05111441]
 [ 0.10619976  0.04768934 -0.01207746 ...  0.00621844 -0.01328762
   0.07961036]]
gru_1/gru_cell_1/bias:0
(2, 300)
[[ 4.37998325e-02  7.80308396e-02 -1.18584283e-01 -1.64831951e-01
   2.05618553e-02 -2.08499450e-02 -1.35502219e-01 -5.69992997e-02
  -3.52729559e-02 -1.60790876e-01 -1.37573853e-01 -1.63921844e-02
  -1.86774999e-01 -1.70436621e-01  5.47813363e-02  1.51173323e-02
  -1.66784808e-01 -1.91777334e-01 -1.35171697e-01 -2.48088650e-02
  -2.69062296e-02 -8.94269347e-02 -8.95262882e-02 -1.52984411e-01
  -1.88536383e-02 -1.28562033e-01 -1.67838499e-01 -7.82582462e-02
  -7.39240646e-02  1.29547566e-02 -6.99717328e-02 -4.63849008e-02
  -9.00393054e-02 -1.09797474e-02 -8.75184238e-02 -7.00169802e-02
  -1.90964658e-02 -8.20199102e-02 -6.44480363e-02 -1.35858878e-01
  -1.73664287e-01 -5.47940545e-02  2.34570708e-02  5.10213338e-02
  -5.50565831e-02  2.88754180e-02  7.66277686e-02  1.96588486e-02
  -1.04667909e-01 -1.85805902e-01 -2.36647390e-02  6.45209569e-03
  -1.64864600e-01 -4.92634028e-02  8.00083950e-02  2.77656410e-03
  -6.84183463e-02 -2.85382271e-02  8.01122636e-02  1.74815226e-02
   6.60192966e-03  2.34430414e-02  6.37716204e-02 -4.55374643e-02
  -7.08614439e-02 -1.28657406e-03  3.69505771e-02 -3.26482281e-02
  -4.18904796e-03  8.22824985e-03 -1.54113337e-01 -6.66531250e-02
  -1.72432944e-01 -6.79473877e-02 -1.67640045e-01 -1.03790738e-01
  -6.41601235e-02  4.93851900e-02 -2.13859230e-01  4.22569131e-03
  -4.30054367e-02  3.93361272e-03 -6.32675588e-02  5.70776574e-02
  -1.33436024e-01 -1.25958025e-01 -1.09115824e-01 -1.24552019e-01
  -1.25474647e-01 -2.63663996e-02 -1.01674177e-01  1.31423725e-03
   3.82961221e-02 -3.42858210e-02 -2.52066981e-02 -1.28280288e-02
  -1.57130703e-01 -1.78548917e-02 -1.34971179e-03 -8.94801915e-02
  -1.54379215e-02  1.04685652e-03 -1.07809696e-02  1.04546882e-02
  -8.32282007e-03 -3.50523600e-03  3.43459751e-03  6.91377558e-03
   1.90245314e-03  5.35348756e-03  2.98118597e-04 -2.36181077e-03
  -1.11358659e-02 -2.90672085e-03 -1.01768449e-02 -7.26748910e-03
  -1.32377669e-02  1.52348643e-02 -1.15419878e-02 -2.25744164e-03
  -1.67114083e-02 -9.47324280e-03  7.32726650e-03 -9.54407360e-03
  -2.50973296e-03 -1.66933678e-04 -1.47103909e-02 -1.42783870e-03
   2.90736416e-03  6.57809153e-03  1.52718020e-03 -8.37864727e-03
  -1.06546441e-02 -2.76888581e-03 -6.31154701e-03 -3.73408059e-03
   1.96959754e-03 -9.03028063e-03 -1.25744129e-02  3.59918550e-03
  -3.97086702e-03  2.72449129e-03  2.80349539e-03  2.41508638e-03
  -1.13271223e-02 -1.54083306e-02  3.83728440e-03 -1.18891615e-03
  -1.43560208e-02  1.42485769e-02 -2.06905277e-03  1.24217942e-02
  -3.69993737e-03 -1.14144841e-02 -7.95306172e-04 -4.19268850e-03
  -7.99106620e-03 -1.56271155e-03 -5.93492482e-03  5.69727097e-04
  -8.71569570e-03 -1.39789411e-03  8.24219082e-03 -2.35724589e-03
   1.20663608e-04 -2.62190611e-03 -1.24637154e-03 -1.12623824e-02
  -1.70533974e-02  1.79965608e-03  1.44814141e-03  2.01844072e-04
   3.39104538e-03 -6.67033205e-03  9.73061949e-04 -1.20061748e-02
  -1.51537079e-03  3.85521143e-03  3.79706640e-03 -6.11625379e-03
  -1.20412642e-02  8.48632422e-04 -6.89927256e-03 -5.47829410e-03
   4.56868671e-03 -6.67231344e-03 -2.05822214e-02 -8.25308543e-03
  -1.18782313e-03 -7.91229028e-03  2.46375729e-03  5.80278784e-03
  -1.03760380e-02 -1.26426772e-03 -5.74197387e-03 -6.91423367e-04
  -5.81313716e-03 -1.53196359e-03  2.94461451e-03 -7.38148578e-04
  -1.30324559e-02  1.12453867e-02 -9.96981468e-03 -1.77368429e-02
  -1.69967879e-02  4.89896489e-03 -1.01743909e-02 -6.81793317e-03
  -8.48331302e-03 -1.07636433e-02 -6.64732931e-03  4.84351441e-03
   1.78742455e-03 -5.81601448e-03 -5.05212555e-03 -7.24839047e-03
   8.43012892e-03 -8.65419861e-03 -7.52924010e-03 -4.79218131e-03
   1.41113056e-02 -1.47580467e-02 -9.06659104e-03  8.58039316e-03
   9.92722157e-03  6.57742843e-03  4.33668727e-03 -1.13526378e-02
   4.45916597e-03  1.01999464e-02 -6.19064225e-03  1.29785119e-02
   1.24746514e-02  6.68960251e-03  4.93694656e-03  9.01650637e-03
  -9.68346931e-03  5.97913284e-03  9.10805073e-03  2.04854296e-03
   1.30973933e-02  7.15340674e-03 -8.69491976e-03 -1.33437691e-02
  -1.05218748e-02 -1.01849353e-02  1.10971192e-02 -8.59479420e-03
   1.00021102e-02 -6.01456035e-03  5.53028146e-03  1.85121261e-02
  -8.61900114e-03  6.24380307e-03  9.28601995e-03  2.35387613e-03
  -1.11929337e-02  4.25455300e-03 -1.84311252e-03  1.22165717e-02
   1.38909929e-02  2.35424540e-03 -1.46440789e-02 -8.00670683e-03
  -1.02812964e-02  1.44838896e-02 -1.01780212e-02 -9.36711580e-03
   1.61937409e-04 -1.23362094e-02  9.14030429e-03 -5.00725070e-03
  -1.09421872e-02  5.30311465e-03  1.06117185e-02  4.58888803e-03
  -4.83055785e-03  1.29971122e-02 -1.07894288e-02  8.31918418e-03
   8.18713475e-03 -7.64294574e-03  1.35267666e-02  1.17037473e-02
  -4.68851486e-03 -1.18409377e-02 -8.45687464e-03 -4.87372605e-03
  -4.80970368e-03  8.57730024e-03 -1.84385199e-02  5.23516024e-03
   1.04122693e-02 -7.33488891e-03 -5.12562273e-03 -7.05135427e-03
   1.62909310e-02 -1.06125725e-02 -9.67562757e-03  8.36068951e-03]
 [ 4.37998287e-02  7.80308470e-02 -1.18584290e-01 -1.64831966e-01
   2.05618553e-02 -2.08499413e-02 -1.35502234e-01 -5.69992959e-02
  -3.52729484e-02 -1.60790890e-01 -1.37573838e-01 -1.63921881e-02
  -1.86774969e-01 -1.70436591e-01  5.47813363e-02  1.51173305e-02
  -1.66784808e-01 -1.91777349e-01 -1.35171711e-01 -2.48088650e-02
  -2.69062370e-02 -8.94269347e-02 -8.95262882e-02 -1.52984411e-01
  -1.88536420e-02 -1.28562033e-01 -1.67838499e-01 -7.82582536e-02
  -7.39240721e-02  1.29547575e-02 -6.99717253e-02 -4.63849045e-02
  -9.00392979e-02 -1.09797483e-02 -8.75184387e-02 -7.00169802e-02
  -1.90964732e-02 -8.20199102e-02 -6.44480214e-02 -1.35858878e-01
  -1.73664287e-01 -5.47940433e-02  2.34570615e-02  5.10213412e-02
  -5.50565869e-02  2.88754180e-02  7.66277686e-02  1.96588542e-02
  -1.04667909e-01 -1.85805902e-01 -2.36647390e-02  6.45208778e-03
  -1.64864600e-01 -4.92634028e-02  8.00084025e-02  2.77656992e-03
  -6.84183463e-02 -2.85382196e-02  8.01122636e-02  1.74815245e-02
   6.60192873e-03  2.34430395e-02  6.37716278e-02 -4.55374643e-02
  -7.08614364e-02 -1.28656998e-03  3.69505771e-02 -3.26482244e-02
  -4.18904657e-03  8.22824799e-03 -1.54113337e-01 -6.66531175e-02
  -1.72432944e-01 -6.79473802e-02 -1.67640030e-01 -1.03790730e-01
  -6.41601309e-02  4.93851900e-02 -2.13859245e-01  4.22569131e-03
  -4.30054292e-02  3.93362017e-03 -6.32675663e-02  5.70776537e-02
  -1.33436054e-01 -1.25958025e-01 -1.09115817e-01 -1.24552004e-01
  -1.25474647e-01 -2.63664071e-02 -1.01674154e-01  1.31424097e-03
   3.82961296e-02 -3.42858247e-02 -2.52067093e-02 -1.28280306e-02
  -1.57130688e-01 -1.78549122e-02 -1.34971610e-03 -8.94801915e-02
  -1.54379215e-02  1.04685582e-03 -1.07809659e-02  1.04546864e-02
  -8.32282007e-03 -3.50523647e-03  3.43459798e-03  6.91377558e-03
   1.90245302e-03  5.35349036e-03  2.98118452e-04 -2.36181146e-03
  -1.11358622e-02 -2.90672039e-03 -1.01768449e-02 -7.26748910e-03
  -1.32377679e-02  1.52348606e-02 -1.15419878e-02 -2.25744117e-03
  -1.67114083e-02 -9.47324280e-03  7.32726557e-03 -9.54407360e-03
  -2.50973366e-03 -1.66932528e-04 -1.47103900e-02 -1.42783590e-03
   2.90736463e-03  6.57809107e-03  1.52717996e-03 -8.37864820e-03
  -1.06546450e-02 -2.76888488e-03 -6.31154655e-03 -3.73408012e-03
   1.96959800e-03 -9.03027970e-03 -1.25744119e-02  3.59918596e-03
  -3.97086889e-03  2.72449246e-03  2.80349585e-03  2.41508381e-03
  -1.13271223e-02 -1.54083287e-02  3.83728440e-03 -1.18891685e-03
  -1.43560208e-02  1.42485816e-02 -2.06905464e-03  1.24217961e-02
  -3.69993644e-03 -1.14144832e-02 -7.95305998e-04 -4.19268804e-03
  -7.99106713e-03 -1.56270992e-03 -5.93492528e-03  5.69727330e-04
  -8.71569291e-03 -1.39789481e-03  8.24218988e-03 -2.35724589e-03
   1.20662429e-04 -2.62190914e-03 -1.24637131e-03 -1.12623814e-02
  -1.70533955e-02  1.79965701e-03  1.44813827e-03  2.01844683e-04
   3.39104724e-03 -6.67033205e-03  9.73062532e-04 -1.20061757e-02
  -1.51537033e-03  3.85521050e-03  3.79706779e-03 -6.11625565e-03
  -1.20412642e-02  8.48633121e-04 -6.89927256e-03 -5.47829410e-03
   4.56868717e-03 -6.67231437e-03 -2.05822196e-02 -8.25308636e-03
  -1.18782371e-03 -7.91229121e-03  2.46375683e-03  5.80278831e-03
  -1.03760371e-02 -1.26426830e-03 -5.74197248e-03 -6.91424299e-04
  -5.81313716e-03 -1.53196242e-03  2.94461544e-03 -7.38153525e-04
  -1.28994305e-02  1.12130623e-02 -1.12875458e-02 -1.77460164e-02
  -1.66491456e-02  4.78425017e-03 -1.00693172e-02 -6.76128129e-03
  -8.53380095e-03 -1.05809607e-02 -6.60649734e-03  4.57744114e-03
   1.87958416e-03 -5.48029458e-03 -4.74275136e-03 -7.33023183e-03
   8.13617464e-03 -8.85096285e-03 -9.40816570e-03 -4.69054095e-03
   1.39857074e-02 -1.47592276e-02 -9.13005974e-03  8.31275340e-03
   9.81127564e-03  6.84161019e-03  4.41401405e-03 -1.12230163e-02
   4.46304772e-03  1.00252833e-02 -6.07213238e-03  1.25430161e-02
   1.26790432e-02  6.39162771e-03  4.87461733e-03  8.92477762e-03
  -9.62039828e-03  6.10469468e-03  8.97075515e-03  1.88061676e-03
   1.31144086e-02  6.94771530e-03 -8.58470518e-03 -1.36781950e-02
  -9.96951479e-03 -9.98690445e-03  1.12096546e-02 -8.19214433e-03
   1.01607414e-02 -5.27298870e-03  5.23719518e-03  1.86107364e-02
  -8.75264872e-03  6.46991283e-03  9.08593275e-03  2.92367674e-03
  -1.12935808e-02  4.30524116e-03 -1.94196682e-03  1.24536613e-02
   1.36030726e-02  2.16572033e-03 -1.50355212e-02 -7.75550446e-03
  -1.01923281e-02  1.43575920e-02 -1.00538246e-02 -9.22418572e-03
  -1.05293257e-04 -1.22328475e-02  9.05359536e-03 -5.23389084e-03
  -1.08518442e-02  5.72465314e-03  1.03774732e-02  4.56673000e-03
  -4.58827661e-03  1.32321585e-02 -1.09011857e-02  8.09922162e-03
   8.27665348e-03 -7.52116553e-03  1.33749209e-02  1.17372358e-02
  -4.63945745e-03 -1.18303495e-02 -8.62272363e-03 -4.34330758e-03
  -4.72760154e-03  8.49726424e-03 -1.79873724e-02  5.36586251e-03
   1.03224488e-02 -7.12132081e-03 -5.19705657e-03 -6.90817460e-03
   1.67532004e-02 -1.01000322e-02 -9.60442889e-03  8.29517096e-03]]
dense/kernel:0
(100, 1)
[[-0.18636955]
 [ 0.11326843]
 [-0.17227958]
 [-0.05141383]
 [-0.10852126]
 [ 0.03222771]
 [-0.16069427]
 [-0.23752584]
 [-0.10058796]
 [-0.12417863]
 [-0.16271345]
 [ 0.05732926]
 [ 0.11774776]
 [-0.11974386]
 [ 0.00406872]
 [-0.13189189]
 [ 0.17191453]
 [-0.23631872]
 [-0.16775373]
 [-0.22507915]
 [ 0.16927116]
 [-0.16591015]
 [-0.17892168]
 [ 0.21472594]
 [ 0.07689211]
 [ 0.19517861]
 [ 0.22014432]
 [-0.16688058]
 [ 0.19819768]
 [ 0.19006366]
 [-0.2043088 ]
 [ 0.13924858]
 [ 0.06434089]
 [ 0.18598755]
 [ 0.21648371]
 [ 0.13408667]
 [-0.18126954]
 [ 0.02841051]
 [ 0.16617505]
 [ 0.24556735]
 [ 0.14000362]
 [ 0.20700906]
 [-0.18252732]
 [-0.07551385]
 [-0.17788671]
 [-0.21727298]
 [ 0.08165897]
 [-0.02055729]
 [ 0.10398995]
 [-0.18319559]
 [ 0.18076806]
 [ 0.09535505]
 [-0.20922326]
 [ 0.14402339]
 [ 0.18304966]
 [-0.05738151]
 [-0.1994414 ]
 [ 0.03379159]
 [ 0.00631108]
 [ 0.19168891]
 [ 0.03027903]
 [-0.00568406]
 [-0.06069393]
 [-0.16552922]
 [-0.15974453]
 [ 0.1793257 ]
 [-0.08619404]
 [-0.19547395]
 [ 0.0166615 ]
 [-0.15285225]
 [ 0.12391715]
 [-0.21255603]
 [-0.24426337]
 [ 0.15322556]
 [ 0.05089698]
 [ 0.21294844]
 [-0.137266  ]
 [ 0.22967629]
 [-0.07952781]
 [ 0.18853714]
 [ 0.09325042]
 [-0.08784013]
 [ 0.10564527]
 [ 0.07067233]
 [-0.15690365]
 [-0.20833342]
 [-0.22772264]
 [-0.09599119]
 [-0.1302713 ]
 [ 0.1980077 ]
 [-0.06377187]
 [ 0.22985876]
 [ 0.20451085]
 [-0.22512794]
 [-0.23465697]
 [-0.07361645]
 [ 0.04481497]
 [-0.03203221]
 [-0.07400274]
 [ 0.19473921]]
dense/bias:0
(1,)
[0.01629713]
